<?xml version="1.0"?>
<opencv_storage>
<cascade>
  <stageType>BOOST</stageType>
  <featureType>HAAR</featureType>
  <height>20</height>
  <width>20</width>
  <stageParams>
    <boostType>GAB</boostType>
    <minHitRate>9.9500000476837158e-01</minHitRate>
    <maxFalseAlarm>5.0000000000000000e-01</maxFalseAlarm>
    <weightTrimRate>9.4999999999999996e-01</weightTrimRate>
    <maxDepth>1</maxDepth>
    <maxWeakCount>100</maxWeakCount></stageParams>
  <featureParams>
    <maxCatCount>0</maxCatCount>
    <featSize>1</featSize>
    <mode>BASIC</mode></featureParams>
  <stageNum>9</stageNum>
  <stages>
    <!-- stage 0 -->
    <_>
      <maxWeakCount>2</maxWeakCount>
      <stageThreshold>-2.3868547379970551e-01</stageThreshold>
      <weakClassifiers>
        <_>
          <internalNodes>
            0 -1 51 -2.9501197859644890e-03</internalNodes>
          <leafValues>
            8.0608558654785156e-01 -8.7122207880020142e-01</leafValues></_>
        <_>
          <internalNodes>
            0 -1 45 6.5273479558527470e-03</internalNodes>
          <leafValues>
            -8.2038861513137817e-01 6.3253659009933472e-01</leafValues></_></weakClassifiers></_>
    <!-- stage 1 -->
    <_>
      <maxWeakCount>5</maxWeakCount>
      <stageThreshold>-1.1583101749420166e+00</stageThreshold>
      <weakClassifiers>
        <_>
          <internalNodes>
            0 -1 18 2.8450224548578262e-02</internalNodes>
          <leafValues>
            -7.5820893049240112e-01 6.9359606504440308e-01</leafValues></_>
        <_>
          <internalNodes>
            0 -1 29 3.8631453644484282e-03</internalNodes>
          <leafValues>
            -6.5645051002502441e-01 6.0484176874160767e-01</leafValues></_>
        <_>
          <internalNodes>
            0 -1 53 4.3711420148611069e-03</internalNodes>
          <leafValues>
            -6.9846224784851074e-01 4.9377140402793884e-01</leafValues></_>
        <_>
          <internalNodes>
            0 -1 46 -3.5758642479777336e-03</internalNodes>
          <leafValues>
            4.9982482194900513e-01 -6.9760346412658691e-01</leafValues></_>
        <_>
          <internalNodes>
            0 -1 26 1.1926044244319201e-03</internalNodes>
          <leafValues>
            -6.7976462841033936e-01 3.9112263917922974e-01</leafValues></_></weakClassifiers></_>
    <!-- stage 2 -->
    <_>
      <maxWeakCount>6</maxWeakCount>
      <stageThreshold>-1.0269064903259277e+00</stageThreshold>
      <weakClassifiers>
        <_>
          <internalNodes>
            0 -1 49 -2.0262749865651131e-02</internalNodes>
          <leafValues>
            6.7159610986709595e-01 -5.6427603960037231e-01</leafValues></_>
        <_>
          <internalNodes>
            0 -1 15 6.9836227339692414e-05</internalNodes>
          <leafValues>
            -8.4195172786712646e-01 4.0667766332626343e-01</leafValues></_>
        <_>
          <internalNodes>
            0 -1 41 3.2178826630115509e-02</internalNodes>
          <leafValues>
            -6.0800695419311523e-01 4.8618242144584656e-01</leafValues></_>
        <_>
          <internalNodes>
            0 -1 14 2.1512692910619080e-04</internalNodes>
          <leafValues>
            -7.8270983695983887e-01 3.5608837008476257e-01</leafValues></_>
        <_>
          <internalNodes>
            0 -1 25 -7.8360273619182408e-05</internalNodes>
          <leafValues>
            -8.9018642902374268e-01 2.1717603504657745e-01</leafValues></_>
        <_>
          <internalNodes>
            0 -1 13 5.9401019825600088e-05</internalNodes>
          <leafValues>
            -7.4897390604019165e-01 3.0423262715339661e-01</leafValues></_></weakClassifiers></_>
    <!-- stage 3 -->
    <_>
      <maxWeakCount>6</maxWeakCount>
      <stageThreshold>-8.4423393011093140e-01</stageThreshold>
      <weakClassifiers>
        <_>
          <internalNodes>
            0 -1 35 1.2284738942980766e-02</internalNodes>
          <leafValues>
            -8.7286061048507690e-01 5.4866868257522583e-01</leafValues></_>
        <_>
          <internalNodes>
            0 -1 33 6.5979016944766045e-03</internalNodes>
          <leafValues>
            -7.0129346847534180e-01 4.1551861166954041e-01</leafValues></_>
        <_>
          <internalNodes>
            0 -1 54 5.3020985797047615e-03</internalNodes>
          <leafValues>
            -7.4498289823532104e-01 3.9178830385208130e-01</leafValues></_>
        <_>
          <internalNodes>
            0 -1 39 1.5561710111796856e-02</internalNodes>
          <leafValues>
            -4.8687988519668579e-01 6.6280835866928101e-01</leafValues></_>
        <_>
          <internalNodes>
            0 -1 19 -7.8362214844673872e-04</internalNodes>
          <leafValues>
            -8.4545415639877319e-01 2.5309994816780090e-01</leafValues></_>
        <_>
          <internalNodes>
            0 -1 8 5.9953029267489910e-04</internalNodes>
          <leafValues>
            -5.5781728029251099e-01 3.1262907385826111e-01</leafValues></_></weakClassifiers></_>
    <!-- stage 4 -->
    <_>
      <maxWeakCount>8</maxWeakCount>
      <stageThreshold>-9.1924345493316650e-01</stageThreshold>
      <weakClassifiers>
        <_>
          <internalNodes>
            0 -1 44 -2.2410803940147161e-03</internalNodes>
          <leafValues>
            6.5119999647140503e-01 -3.8909089565277100e-01</leafValues></_>
        <_>
          <internalNodes>
            0 -1 31 5.9190479078097269e-05</internalNodes>
          <leafValues>
            -7.4532890319824219e-01 3.8420829176902771e-01</leafValues></_>
        <_>
          <internalNodes>
            0 -1 56 1.3648740947246552e-02</internalNodes>
          <leafValues>
            -5.5909305810928345e-01 4.4512823224067688e-01</leafValues></_>
        <_>
          <internalNodes>
            0 -1 12 5.7103810831904411e-04</internalNodes>
          <leafValues>
            -7.0049214363098145e-01 2.7827975153923035e-01</leafValues></_>
        <_>
          <internalNodes>
            0 -1 12 2.1609454415738583e-03</internalNodes>
          <leafValues>
            2.4806305766105652e-01 -7.2636938095092773e-01</leafValues></_>
        <_>
          <internalNodes>
            0 -1 4 -4.2104385793209076e-03</internalNodes>
          <leafValues>
            5.6875145435333252e-01 -3.7513974308967590e-01</leafValues></_>
        <_>
          <internalNodes>
            0 -1 55 6.0366801917552948e-03</internalNodes>
          <leafValues>
            -5.9282118082046509e-01 3.1242719292640686e-01</leafValues></_>
        <_>
          <internalNodes>
            0 -1 22 1.4911446487531066e-04</internalNodes>
          <leafValues>
            -7.5510108470916748e-01 2.5426194071769714e-01</leafValues></_></weakClassifiers></_>
    <!-- stage 5 -->
    <_>
      <maxWeakCount>8</maxWeakCount>
      <stageThreshold>-7.8851246833801270e-01</stageThreshold>
      <weakClassifiers>
        <_>
          <internalNodes>
            0 -1 25 5.8843819715548307e-05</internalNodes>
          <leafValues>
            -6.8736618757247925e-01 5.4679805040359497e-01</leafValues></_>
        <_>
          <internalNodes>
            0 -1 40 4.4430159032344818e-02</internalNodes>
          <leafValues>
            -2.8431040048599243e-01 7.7667313814163208e-01</leafValues></_>
        <_>
          <internalNodes>
            0 -1 57 -4.8869419842958450e-03</internalNodes>
          <leafValues>
            5.9013229608535767e-01 -3.4523272514343262e-01</leafValues></_>
        <_>
          <internalNodes>
            0 -1 10 -1.5856212121434510e-04</internalNodes>
          <leafValues>
            -6.5067774057388306e-01 2.8176745772361755e-01</leafValues></_>
        <_>
          <internalNodes>
            0 -1 34 4.9230773583985865e-05</internalNodes>
          <leafValues>
            -6.5708726644515991e-01 2.9955142736434937e-01</leafValues></_>
        <_>
          <internalNodes>
            0 -1 50 -2.3993789218366146e-03</internalNodes>
          <leafValues>
            2.8674820065498352e-01 -6.7953395843505859e-01</leafValues></_>
        <_>
          <internalNodes>
            0 -1 7 -1.0473222937434912e-03</internalNodes>
          <leafValues>
            4.0897312760353088e-01 -4.9360448122024536e-01</leafValues></_>
        <_>
          <internalNodes>
            0 -1 24 -6.7681728978641331e-05</internalNodes>
          <leafValues>
            -7.2736972570419312e-01 3.0028757452964783e-01</leafValues></_></weakClassifiers></_>
    <!-- stage 6 -->
    <_>
      <maxWeakCount>9</maxWeakCount>
      <stageThreshold>-1.1437851190567017e+00</stageThreshold>
      <weakClassifiers>
        <_>
          <internalNodes>
            0 -1 17 -1.1169719800818712e-04</internalNodes>
          <leafValues>
            -7.8421050310134888e-01 5.1637929677963257e-01</leafValues></_>
        <_>
          <internalNodes>
            0 -1 36 -6.9336533546447754e-02</internalNodes>
          <leafValues>
            4.3703439831733704e-01 -4.5318135619163513e-01</leafValues></_>
        <_>
          <internalNodes>
            0 -1 12 3.2594351796433330e-04</internalNodes>
          <leafValues>
            -7.2399830818176270e-01 2.9930374026298523e-01</leafValues></_>
        <_>
          <internalNodes>
            0 -1 0 7.6944595202803612e-03</internalNodes>
          <leafValues>
            -3.2773411273956299e-01 6.7453318834304810e-01</leafValues></_>
        <_>
          <internalNodes>
            0 -1 43 7.2391894645988941e-03</internalNodes>
          <leafValues>
            -8.0516493320465088e-01 2.5719070434570312e-01</leafValues></_>
        <_>
          <internalNodes>
            0 -1 32 5.8959173038601875e-03</internalNodes>
          <leafValues>
            -7.0160949230194092e-01 1.7597261071205139e-01</leafValues></_>
        <_>
          <internalNodes>
            0 -1 20 1.1425705160945654e-03</internalNodes>
          <leafValues>
            1.6563814878463745e-01 -8.5636729001998901e-01</leafValues></_>
        <_>
          <internalNodes>
            0 -1 5 1.2050351360812783e-03</internalNodes>
          <leafValues>
            -4.3364709615707397e-01 4.0913566946983337e-01</leafValues></_>
        <_>
          <internalNodes>
            0 -1 1 -7.7330768108367920e-03</internalNodes>
          <leafValues>
            5.1360279321670532e-01 -3.3303865790367126e-01</leafValues></_></weakClassifiers></_>
    <!-- stage 7 -->
    <_>
      <maxWeakCount>10</maxWeakCount>
      <stageThreshold>-1.1121159791946411e+00</stageThreshold>
      <weakClassifiers>
        <_>
          <internalNodes>
            0 -1 16 3.6619906313717365e-04</internalNodes>
          <leafValues>
            -6.4055299758911133e-01 5.1985877752304077e-01</leafValues></_>
        <_>
          <internalNodes>
            0 -1 37 9.8145008087158203e-03</internalNodes>
          <leafValues>
            -4.1377061605453491e-01 4.7570559382438660e-01</leafValues></_>
        <_>
          <internalNodes>
            0 -1 52 2.5875004939734936e-03</internalNodes>
          <leafValues>
            -6.3835424184799194e-01 3.4745201468467712e-01</leafValues></_>
        <_>
          <internalNodes>
            0 -1 38 6.2606379389762878e-02</internalNodes>
          <leafValues>
            -2.6989036798477173e-01 8.1120157241821289e-01</leafValues></_>
        <_>
          <internalNodes>
            0 -1 48 9.6714368555694818e-04</internalNodes>
          <leafValues>
            -8.0613118410110474e-01 2.0733188092708588e-01</leafValues></_>
        <_>
          <internalNodes>
            0 -1 13 8.6666404968127608e-04</internalNodes>
          <leafValues>
            1.7902594804763794e-01 -8.6622196435928345e-01</leafValues></_>
        <_>
          <internalNodes>
            0 -1 47 -2.1019293926656246e-03</internalNodes>
          <leafValues>
            2.4652896821498871e-01 -5.8282494544982910e-01</leafValues></_>
        <_>
          <internalNodes>
            0 -1 9 6.0645252233371139e-05</internalNodes>
          <leafValues>
            -5.6674820184707642e-01 2.7799385786056519e-01</leafValues></_>
        <_>
          <internalNodes>
            0 -1 30 5.5912711104610935e-05</internalNodes>
          <leafValues>
            -5.2579194307327271e-01 2.8526401519775391e-01</leafValues></_>
        <_>
          <internalNodes>
            0 -1 28 -1.3137992471456528e-02</internalNodes>
          <leafValues>
            -9.3265795707702637e-01 1.6196241974830627e-01</leafValues></_></weakClassifiers></_>
    <!-- stage 8 -->
    <_>
      <maxWeakCount>10</maxWeakCount>
      <stageThreshold>-1.1159411668777466e+00</stageThreshold>
      <weakClassifiers>
        <_>
          <internalNodes>
            0 -1 21 2.2634451743215322e-03</internalNodes>
          <leafValues>
            4.9978512525558472e-01 -7.0509386062622070e-01</leafValues></_>
        <_>
          <internalNodes>
            0 -1 23 -1.3278968981467187e-04</internalNodes>
          <leafValues>
            -7.1773588657379150e-01 2.9417830705642700e-01</leafValues></_>
        <_>
          <internalNodes>
            0 -1 2 2.9623233713209629e-03</internalNodes>
          <leafValues>
            -4.6554166078567505e-01 3.8585835695266724e-01</leafValues></_>
        <_>
          <internalNodes>
            0 -1 58 -1.1559985578060150e-02</internalNodes>
          <leafValues>
            6.8398064374923706e-01 -2.2291153669357300e-01</leafValues></_>
        <_>
          <internalNodes>
            0 -1 42 -4.2041232809424400e-03</internalNodes>
          <leafValues>
            4.4333523511886597e-01 -3.9941993355751038e-01</leafValues></_>
        <_>
          <internalNodes>
            0 -1 11 -3.4669382148422301e-04</internalNodes>
          <leafValues>
            3.1138849258422852e-01 -6.4047998189926147e-01</leafValues></_>
        <_>
          <internalNodes>
            0 -1 25 4.7843212087173015e-05</internalNodes>
          <leafValues>
            -8.0757176876068115e-01 1.6436505317687988e-01</leafValues></_>
        <_>
          <internalNodes>
            0 -1 3 -1.4854913577437401e-02</internalNodes>
          <leafValues>
            3.7826415896415710e-01 -3.8731005787849426e-01</leafValues></_>
        <_>
          <internalNodes>
            0 -1 6 1.6217847587540746e-04</internalNodes>
          <leafValues>
            -5.0229591131210327e-01 3.2130056619644165e-01</leafValues></_>
        <_>
          <internalNodes>
            0 -1 27 1.7539311666041613e-03</internalNodes>
          <leafValues>
            -4.0817901492118835e-01 3.2759621739387512e-01</leafValues></_></weakClassifiers></_></stages>
  <features>
    <_>
      <rects>
        <_>
          0 3 2 6 -1.</_>
        <_>
          1 3 1 6 2.</_></rects>
      <tilted>0</tilted></_>
    <_>
      <rects>
        <_>
          1 5 4 3 -1.</_>
        <_>
          3 5 2 3 2.</_></rects>
      <tilted>0</tilted></_>
    <_>
      <rects>
        <_>
          1 13 9 1 -1.</_>
        <_>
          4 13 3 1 3.</_></rects>
      <tilted>0</tilted></_>
    <_>
      <rects>
        <_>
          2 1 6 7 -1.</_>
        <_>
          4 1 2 7 3.</_></rects>
      <tilted>0</tilted></_>
    <_>
      <rects>
        <_>
          2 4 2 4 -1.</_>
        <_>
          3 4 1 4 2.</_></rects>
      <tilted>0</tilted></_>
    <_>
      <rects>
        <_>
          2 9 1 4 -1.</_>
        <_>
          2 11 1 2 2.</_></rects>
      <tilted>0</tilted></_>
    <_>
      <rects>
        <_>
          2 12 2 2 -1.</_>
        <_>
          2 13 2 1 2.</_></rects>
      <tilted>0</tilted></_>
    <_>
      <rects>
        <_>
          2 13 10 1 -1.</_>
        <_>
          7 13 5 1 2.</_></rects>
      <tilted>0</tilted></_>
    <_>
      <rects>
        <_>
          3 10 1 4 -1.</_>
        <_>
          3 12 1 2 2.</_></rects>
      <tilted>0</tilted></_>
    <_>
      <rects>
        <_>
          3 11 1 2 -1.</_>
        <_>
          3 12 1 1 2.</_></rects>
      <tilted>0</tilted></_>
    <_>
      <rects>
        <_>
          3 12 2 2 -1.</_>
        <_>
          4 12 1 2 2.</_></rects>
      <tilted>0</tilted></_>
    <_>
      <rects>
        <_>
          4 5 10 2 -1.</_>
        <_>
          4 6 10 1 2.</_></rects>
      <tilted>0</tilted></_>
    <_>
      <rects>
        <_>
          4 11 1 4 -1.</_>
        <_>
          4 13 1 2 2.</_></rects>
      <tilted>0</tilted></_>
    <_>
      <rects>
        <_>
          4 12 1 2 -1.</_>
        <_>
          4 13 1 1 2.</_></rects>
      <tilted>0</tilted></_>
    <_>
      <rects>
        <_>
          4 13 2 3 -1.</_>
        <_>
          5 13 1 3 2.</_></rects>
      <tilted>0</tilted></_>
    <_>
      <rects>
        <_>
          4 13 2 2 -1.</_>
        <_>
          4 14 2 1 2.</_></rects>
      <tilted>0</tilted></_>
    <_>
      <rects>
        <_>
          4 13 3 2 -1.</_>
        <_>
          4 14 3 1 2.</_></rects>
      <tilted>0</tilted></_>
    <_>
      <rects>
        <_>
          4 14 2 1 -1.</_>
        <_>
          5 14 1 1 2.</_></rects>
      <tilted>0</tilted></_>
    <_>
      <rects>
        <_>
          5 4 12 3 -1.</_>
        <_>
          11 4 6 3 2.</_></rects>
      <tilted>0</tilted></_>
    <_>
      <rects>
        <_>
          5 12 1 3 -1.</_>
        <_>
          5 13 1 1 3.</_></rects>
      <tilted>0</tilted></_>
    <_>
      <rects>
        <_>
          5 13 1 2 -1.</_>
        <_>
          5 14 1 1 2.</_></rects>
      <tilted>0</tilted></_>
    <_>
      <rects>
        <_>
          5 13 1 4 -1.</_>
        <_>
          5 15 1 2 2.</_></rects>
      <tilted>0</tilted></_>
    <_>
      <rects>
        <_>
          5 13 2 2 -1.</_>
        <_>
          5 14 2 1 2.</_></rects>
      <tilted>0</tilted></_>
    <_>
      <rects>
        <_>
          5 14 1 2 -1.</_>
        <_>
          5 15 1 1 2.</_></rects>
      <tilted>0</tilted></_>
    <_>
      <rects>
        <_>
          5 14 2 2 -1.</_>
        <_>
          5 15 2 1 2.</_></rects>
      <tilted>0</tilted></_>
    <_>
      <rects>
        <_>
          5 15 2 1 -1.</_>
        <_>
          6 15 1 1 2.</_></rects>
      <tilted>0</tilted></_>
    <_>
      <rects>
        <_>
          5 16 4 2 -1.</_>
        <_>
          7 16 2 2 2.</_></rects>
      <tilted>0</tilted></_>
    <_>
      <rects>
        <_>
          6 1 4 4 -1.</_>
        <_>
          6 1 2 2 2.</_>
        <_>
          8 3 2 2 2.</_></rects>
      <tilted>0</tilted></_>
    <_>
      <rects>
        <_>
          6 5 9 1 -1.</_>
        <_>
          9 5 3 1 3.</_></rects>
      <tilted>0</tilted></_>
    <_>
      <rects>
        <_>
          6 12 3 4 -1.</_>
        <_>
          6 14 3 2 2.</_></rects>
      <tilted>0</tilted></_>
    <_>
      <rects>
        <_>
          6 15 2 1 -1.</_>
        <_>
          7 15 1 1 2.</_></rects>
      <tilted>0</tilted></_>
    <_>
      <rects>
        <_>
          6 16 2 1 -1.</_>
        <_>
          7 16 1 1 2.</_></rects>
      <tilted>0</tilted></_>
    <_>
      <rects>
        <_>
          7 3 6 4 -1.</_>
        <_>
          10 3 3 4 2.</_></rects>
      <tilted>0</tilted></_>
    <_>
      <rects>
        <_>
          7 12 3 6 -1.</_>
        <_>
          7 15 3 3 2.</_></rects>
      <tilted>0</tilted></_>
    <_>
      <rects>
        <_>
          7 17 2 1 -1.</_>
        <_>
          8 17 1 1 2.</_></rects>
      <tilted>0</tilted></_>
    <_>
      <rects>
        <_>
          8 4 8 3 -1.</_>
        <_>
          12 4 4 3 2.</_></rects>
      <tilted>0</tilted></_>
    <_>
      <rects>
        <_>
          8 5 11 8 -1.</_>
        <_>
          8 9 11 4 2.</_></rects>
      <tilted>0</tilted></_>
    <_>
      <rects>
        <_>
          8 14 3 6 -1.</_>
        <_>
          8 16 3 2 3.</_></rects>
      <tilted>0</tilted></_>
    <_>
      <rects>
        <_>
          9 0 8 4 -1.</_>
        <_>
          9 2 8 2 2.</_></rects>
      <tilted>0</tilted></_>
    <_>
      <rects>
        <_>
          10 0 5 4 -1.</_>
        <_>
          10 2 5 2 2.</_></rects>
      <tilted>0</tilted></_>
    <_>
      <rects>
        <_>
          10 0 5 6 -1.</_>
        <_>
          10 2 5 2 3.</_></rects>
      <tilted>0</tilted></_>
    <_>
      <rects>
        <_>
          10 1 10 8 -1.</_>
        <_>
          10 1 5 4 2.</_>
        <_>
          15 5 5 4 2.</_></rects>
      <tilted>0</tilted></_>
    <_>
      <rects>
        <_>
          10 3 5 2 -1.</_>
        <_>
          10 4 5 1 2.</_></rects>
      <tilted>0</tilted></_>
    <_>
      <rects>
        <_>
          10 5 6 2 -1.</_>
        <_>
          13 5 3 2 2.</_></rects>
      <tilted>0</tilted></_>
    <_>
      <rects>
        <_>
          11 4 4 2 -1.</_>
        <_>
          11 5 4 1 2.</_></rects>
      <tilted>0</tilted></_>
    <_>
      <rects>
        <_>
          11 6 6 2 -1.</_>
        <_>
          14 6 3 2 2.</_></rects>
      <tilted>0</tilted></_>
    <_>
      <rects>
        <_>
          12 3 2 4 -1.</_>
        <_>
          12 5 2 2 2.</_></rects>
      <tilted>0</tilted></_>
    <_>
      <rects>
        <_>
          12 4 1 6 -1.</_>
        <_>
          12 7 1 3 2.</_></rects>
      <tilted>0</tilted></_>
    <_>
      <rects>
        <_>
          12 5 4 1 -1.</_>
        <_>
          14 5 2 1 2.</_></rects>
      <tilted>0</tilted></_>
    <_>
      <rects>
        <_>
          13 5 4 8 -1.</_>
        <_>
          13 9 4 4 2.</_></rects>
      <tilted>0</tilted></_>
    <_>
      <rects>
        <_>
          14 4 1 4 -1.</_>
        <_>
          14 6 1 2 2.</_></rects>
      <tilted>0</tilted></_>
    <_>
      <rects>
        <_>
          14 5 2 4 -1.</_>
        <_>
          14 7 2 2 2.</_></rects>
      <tilted>0</tilted></_>
    <_>
      <rects>
        <_>
          14 7 6 1 -1.</_>
        <_>
          16 7 2 1 3.</_></rects>
      <tilted>0</tilted></_>
    <_>
      <rects>
        <_>
          14 7 4 2 -1.</_>
        <_>
          16 7 2 2 2.</_></rects>
      <tilted>0</tilted></_>
    <_>
      <rects>
        <_>
          14 7 4 3 -1.</_>
        <_>
          16 7 2 3 2.</_></rects>
      <tilted>0</tilted></_>
    <_>
      <rects>
        <_>
          15 4 4 6 -1.</_>
        <_>
          15 4 2 3 2.</_>
        <_>
          17 7 2 3 2.</_></rects>
      <tilted>0</tilted></_>
    <_>
      <rects>
        <_>
          17 0 1 15 -1.</_>
        <_>
          17 5 1 5 3.</_></rects>
      <tilted>0</tilted></_>
    <_>
      <rects>
        <_>
          18 8 2 3 -1.</_>
        <_>
          19 8 1 3 2.</_></rects>
      <tilted>0</tilted></_>
    <_>
      <rects>
        <_>
          18 8 2 4 -1.</_>
        <_>
          19 8 1 4 2.</_></rects>
      <tilted>0</tilted></_></features></cascade>
</opencv_storage>
